{"learner":{"attributes":{"scikit_learn":"{\"n_estimators\": 10, \"objective\": \"binary:logistic\", \"max_depth\": 5, \"learning_rate\": 0.1, \"verbosity\": null, \"booster\": null, \"tree_method\": null, \"gamma\": null, \"min_child_weight\": null, \"max_delta_step\": null, \"subsample\": null, \"colsample_bytree\": 0.5, \"colsample_bylevel\": null, \"colsample_bynode\": null, \"reg_alpha\": null, \"reg_lambda\": null, \"scale_pos_weight\": null, \"base_score\": null, \"missing\": NaN, \"num_parallel_tree\": null, \"kwargs\": {\"alpha\": 10}, \"random_state\": null, \"n_jobs\": null, \"monotone_constraints\": null, \"interaction_constraints\": null, \"importance_type\": \"gain\", \"gpu_id\": null, \"validate_parameters\": null, \"_estimator_type\": \"regressor\"}"},"feature_names":["Rent","Base","Grace_Period","Legal_Rent","Deposit","Months_Occupied","Roommates-Y","ACH-Y"],"feature_types":["float","float","int","float","float","int","int","int"],"gradient_booster":{"model":{"gbtree_model_param":{"num_trees":"10","size_leaf_vector":"0"},"tree_info":[0,0,0,0,0,0,0,0,0,0],"trees":[{"base_weights":[-6.522759E-1,4.8859936E-1,-1.5485997E0,-1.0285715E0,1.4782609E0,2.0472442E-1,-1.7836847E0,-1.709091E0,-0E0,1.6687899E0,2.2222222E-1,-4.2857143E-1,1.2E0,-1.7767441E0,-0E0,6.451613E-2,-0E0,-0E0,4.0816328E-1,-5.833333E-1,-0E0,1.2345679E-1,-0E0,-0E0,5.411765E-1],"categories":[],"categories_nodes":[],"categories_segments":[],"categories_sizes":[],"default_left":[false,true,true,false,true,true,false,false,true,false,false,true,false,false,false,true,false,false,false,false,false,false,false,false,false],"id":0,"left_children":[1,3,5,7,9,11,-1,13,15,-1,17,19,-1,-1,-1,21,-1,-1,23,-1,-1,-1,-1,-1,-1],"loss_changes":[5.561434E2,3.517344E2,1.412514E2,6.8083115E1,1.5120117E1,2.8240719E1,0E0,9.024536E0,9.677419E-2,0E0,2.7482991E0,1.511905E0,0E0,0E0,0E0,2.1186778E-1,0E0,0E0,2.1418967E0,0E0,0E0,0E0,0E0,0E0,0E0],"parents":[2147483647,0,0,1,1,2,2,3,3,4,4,5,5,7,7,8,8,10,10,11,11,15,15,18,18],"right_children":[2,4,6,8,10,12,-1,14,16,-1,18,20,-1,-1,-1,22,-1,-1,24,-1,-1,-1,-1,-1,-1],"split_conditions":[3E1,1.6807949E3,1.05E1,2.5E0,2.7995E3,1.6263049E3,-1.7836848E-1,4.22E3,2.3141501E2,1.6687898E-1,2.5E0,5E-1,1.20000005E-1,-1.7767441E-1,-0E0,1.2770901E3,-0E0,-0E0,3.16906E3,-5.8333334E-2,-0E0,1.2345679E-2,-0E0,-0E0,5.411765E-2],"split_indices":[1,3,4,1,4,3,0,4,3,0,1,6,0,0,0,4,0,0,3,0,0,0,0,0,0],"split_type":[0,0,0,0,0,0,0,0,0,0,0,0,0,0,0,0,0,0,0,0,0,0,0,0,0],"sum_hessian":[5.3175E2,2.2925E2,3.025E2,8.65E1,1.4275E2,3.075E1,2.7175E2,5.4E1,3.25E1,1.1675E2,2.6E1,1.3E1,1.775E1,5.275E1,1.25E0,2.225E1,1.025E1,2.5E0,2.35E1,1.1E1,2E0,1.925E1,3E0,3.25E0,2.025E1],"tree_param":{"num_deleted":"0","num_feature":"8","num_nodes":"25","size_leaf_vector":"0"}},{"base_weights":[-5.895956E-1,-1.257034E0,-1.1233803E-1,-1.5721908E0,6.698841E-2,5.3123087E-1,-1.09558746E-1,-0E0,7.691025E-1,-3.5219836E-1,2.836979E-1,7.931619E-1,-4.8866162E-1,-3.9069596E-1,-0E0,-0E0,4.125129E-1],"categories":[],"categories_nodes":[],"categories_segments":[],"categories_sizes":[],"default_left":[true,false,true,false,true,false,false,false,false,true,true,false,false,false,false,false,false],"id":1,"left_children":[1,-1,3,-1,5,7,9,11,-1,13,15,-1,-1,-1,-1,-1,-1],"loss_changes":[1.5476453E2,0E0,9.852347E1,0E0,2.7098248E1,1.2694746E1,1.8625372E1,1.0805761E1,0E0,3.2385902E0,2.2897682E0,0E0,0E0,0E0,0E0,0E0,0E0],"parents":[2147483647,0,0,2,2,4,4,5,5,6,6,7,7,9,9,10,10],"right_children":[2,-1,4,-1,6,8,10,12,-1,14,16,-1,-1,-1,-1,-1,-1],"split_conditions":[2.75E1,-1.257034E-1,1.2135E2,-1.5721908E-1,1.470615E3,1.78319E3,3.766655E3,3.0646E2,7.691025E-2,2.3925E3,3.85E1,7.931619E-2,-4.8866164E-2,-3.9069597E-2,-0E0,-0E0,4.125129E-2],"split_indices":[5,0,0,0,0,3,3,3,0,0,5,0,0,0,0,0,0],"split_type":[0,0,0,0,0,0,0,0,0,0,0,0,0,0,0,0,0],"sum_hessian":[5.282881E2,2.1084177E2,3.1744635E2,3.9979557E1,2.774668E2,9.14985E1,1.8596828E2,2.6907335E1,6.459116E1,1.3079857E2,5.5169716E1,8.999531E0,1.7907804E1,1.27321175E2,3.477393E0,1.6146893E1,3.9022823E1],"tree_param":{"num_deleted":"0","num_feature":"8","num_nodes":"17","size_leaf_vector":"0"}},{"base_weights":[-5.342858E-1,4.1316363E-1,-1.7432625E0,-1.544267E0,9.516138E-1,1.5994916E0,-1.850227E-1,-0E0,1.6824912E0,-0E0,-2.2430305E-1,-2.320455E-1,-0E0],"categories":[],"categories_nodes":[],"categories_segments":[],"categories_sizes":[],"default_left":[true,true,false,false,true,false,true,false,false,false,true,false,false],"id":2,"left_children":[1,3,-1,-1,5,7,9,-1,-1,-1,11,-1,-1],"loss_changes":[6.1622217E2,3.0216556E2,0E0,0E0,1.8586227E2,6.130188E0,1.2081699E0,0E0,0E0,0E0,3.7058353E-2,0E0,0E0],"parents":[2147483647,0,0,1,1,4,4,5,5,6,6,10,10],"right_children":[2,4,-1,-1,6,8,10,-1,-1,-1,12,-1,-1],"split_conditions":[5E-1,6.25E1,-1.7432626E-1,-1.5442671E-1,3E1,2.5E0,3.168E2,-0E0,1.6824912E-1,-0E0,1.25E1,-2.320455E-2,-0E0],"split_indices":[7,0,0,0,1,1,0,0,0,0,2,0,0],"split_type":[0,0,0,0,0,0,0,0,0,0,0,0,0],"sum_hessian":[5.2473566E2,2.8991907E2,2.348166E2,5.8136246E1,2.317828E2,1.5297716E2,7.880565E1,1.2651532E1,1.4032564E2,1.4903452E0,7.73153E1,7.286458E1,4.4507213E0],"tree_param":{"num_deleted":"0","num_feature":"8","num_nodes":"13","size_leaf_vector":"0"}},{"base_weights":[-4.9194327E-1,4.4643545E-1,-1.241215E0,-7.763225E-1,1.2480106E0,2.834085E-1,-1.4572651E0,-1.3324957E0,-0E0,-3.8877237E-1,1.517062E0,-1.8195415E-1,1.1439973E0,-1.3944957E0,-0E0,5.0186493E-2,-0E0,-0E0,-6.675666E-1,1.5458934E0,-0E0,-2.930093E-1,-0E0,-0E0,3.7938452E-1],"categories":[],"categories_nodes":[],"categories_segments":[],"categories_sizes":[],"default_left":[false,true,true,false,true,true,false,false,true,false,true,true,false,false,false,true,false,false,false,false,false,false,false,false,false],"id":3,"left_children":[1,3,5,7,9,11,-1,13,15,17,19,21,-1,-1,-1,23,-1,-1,-1,-1,-1,-1,-1,-1,-1],"loss_changes":[3.705959E2,2.2470076E2,1.08513214E2,4.1815914E1,7.365628E1,2.2404697E1,0E0,6.395424E0,5.7695255E-2,2.8667488E0,3.4577942E0,5.9499663E-1,0E0,0E0,0E0,1.8550667E0,0E0,0E0,0E0,0E0,0E0,0E0,0E0,0E0,0E0],"parents":[2147483647,0,0,1,1,2,2,3,3,4,4,5,5,7,7,8,8,9,9,10,10,11,11,15,15],"right_children":[2,4,6,8,10,12,-1,14,16,18,20,22,-1,-1,-1,24,-1,-1,-1,-1,-1,-1,-1,-1,-1],"split_conditions":[3E1,1.6807949E3,1.05E1,2.5E0,1.4E1,1.6263049E3,-1.4572652E-1,4.22E3,2.3141501E2,1.5205449E3,4.776E3,5.25E1,1.1439973E-1,-1.3944958E-1,-0E0,2.85E1,-0E0,-0E0,-6.675666E-2,1.5458934E-1,-0E0,-2.9300932E-2,-0E0,-0E0,3.7938453E-2],"split_indices":[1,3,4,1,5,3,0,4,3,4,4,5,0,0,0,5,0,0,0,0,0,0,0,0,0],"split_type":[0,0,0,0,0,0,0,0,0,0,0,0,0,0,0,0,0,0,0,0,0,0,0,0,0],"sum_hessian":[5.1399585E2,2.2245448E2,2.9154138E2,8.315788E1,1.392966E2,3.0402136E1,2.6113922E2,5.11169E1,3.2040977E1,1.4354975E1,1.24941635E2,1.2702103E1,1.7700031E1,4.9874424E1,1.2424791E0,2.1906904E1,1.0134074E1,3.7144117E0,1.0640563E1,1.2173463E2,3.207004E0,1.1214118E1,1.4879854E0,9.617617E0,1.2289288E1],"tree_param":{"num_deleted":"0","num_feature":"8","num_nodes":"25","size_leaf_vector":"0"}},{"base_weights":[-4.5727482E-1,4.0487728E-1,-1.1529443E0,-1.3844087E0,1.1158426E0,-5.2671295E-1,1.3349197E0,-0E0,-6.9226867E-1,-0E0,1.406254E0],"categories":[],"categories_nodes":[],"categories_segments":[],"categories_sizes":[],"default_left":[false,true,false,false,true,true,false,false,false,false,false],"id":4,"left_children":[1,3,-1,-1,5,7,9,-1,-1,-1,-1],"loss_changes":[3.0838995E2,2.7620383E2,0E0,0E0,6.6567856E1,2.279081E0,5.093231E0,0E0,0E0,0E0,0E0],"parents":[2147483647,0,0,1,1,4,4,5,5,6,6],"right_children":[2,4,-1,-1,6,8,10,-1,-1,-1,-1],"split_conditions":[3E1,1.2135E2,-1.15294434E-1,-1.3844088E-1,9.5E0,3.9234E2,2.5E0,-0E0,-6.922687E-2,-0E0,1.406254E-1],"split_indices":[1,0,0,0,5,0,1,0,0,0,0],"split_type":[0,0,0,0,0,0,0,0,0,0,0],"sum_hessian":[4.999271E2,2.1701767E2,2.8290942E2,5.7441666E1,1.59576E2,1.3242037E1,1.4633397E2,1.2417593E0,1.20002775E1,1.1992819E1,1.3434114E2],"tree_param":{"num_deleted":"0","num_feature":"8","num_nodes":"11","size_leaf_vector":"0"}},{"base_weights":[-4.2589957E-1,2.7842423E-1,-8.275081E-1,-1.3333021E0,1.3079869E0,-1.1755912E0,-5.127849E-1,-0E0,1.396473E0,-0E0,-5.8518654E-1,1.4542725E0,-0E0,-6.257766E-1,-0E0,1.4683208E0,-0E0,-0E0,-6.35485E-1],"categories":[],"categories_nodes":[],"categories_segments":[],"categories_sizes":[],"default_left":[true,true,true,false,true,false,true,false,true,false,true,true,false,false,false,false,false,false,false],"id":5,"left_children":[1,3,5,-1,7,-1,9,-1,11,-1,13,15,-1,17,-1,-1,-1,-1,-1],"loss_changes":[1.431228E2,2.804363E2,1.7421585E1,0E0,1.411676E1,0E0,7.7230415E0,0E0,6.3590393E0,0E0,6.0502586E0,1.4724274E0,0E0,1.3872032E0,0E0,0E0,0E0,0E0,0E0],"parents":[2147483647,0,0,1,1,2,2,4,4,6,6,8,8,10,10,11,11,13,13],"right_children":[2,4,6,-1,8,-1,10,-1,12,-1,14,16,-1,18,-1,-1,-1,-1,-1],"split_conditions":[8.0704004E2,1.2135E2,2.65E1,-1.3333021E-1,1E1,-1.1755913E-1,1.3058999E3,-0E0,1.3E1,-0E0,2.482155E3,2.97025E3,-0E0,1.148815E3,-0E0,1.468321E-1,-0E0,-0E0,-6.35485E-2],"split_indices":[4,0,5,0,5,0,0,0,4,0,0,0,0,4,0,0,0,0,0],"split_type":[0,0,0,0,0,0,0,0,0,0,0,0,0,0,0,0,0,0,0],"sum_hessian":[4.8475403E2,1.6710294E2,3.176511E2,6.123495E1,1.0586799E2,1.3444543E2,1.8320564E2,5.875255E0,9.999274E1,2.02088E1,1.6299684E2,9.51312E1,4.8615346E0,1.5786226E2,5.134587E0,9.3983475E1,1.1477218E0,1.3818558E0,1.5648041E2],"tree_param":{"num_deleted":"0","num_feature":"8","num_nodes":"19","size_leaf_vector":"0"}},{"base_weights":[-3.956188E-1,3.8058853E-1,-1.4294597E0,-1.2121753E0,8.025887E-1,-0E0,9.895721E-1,7.320918E-1,-2.121657E-1,-0E0,1.0659612E0,-2.5743094E-1,-0E0,1.0857732E0,-0E0],"categories":[],"categories_nodes":[],"categories_segments":[],"categories_sizes":[],"default_left":[true,true,false,false,false,true,true,false,true,false,true,false,false,false,false],"id":6,"left_children":[1,3,-1,-1,5,7,9,-1,11,-1,13,-1,-1,-1,-1],"loss_changes":[3.9046616E2,1.7521742E2,0E0,0E0,2.9864777E1,8.304962E0,1.34027405E1,0E0,5.939472E-1,0E0,1.3406067E0,0E0,0E0,0E0,0E0],"parents":[2147483647,0,0,1,1,4,4,5,5,6,6,8,8,10,10],"right_children":[2,4,-1,-1,6,8,10,-1,12,-1,14,-1,-1,-1,-1],"split_conditions":[5E-1,6.25E1,-1.4294598E-1,-1.2121753E-1,1.942015E3,3.9234E2,1.45E1,7.320918E-2,1.774185E3,-0E0,2.786655E3,-2.5743095E-2,-0E0,1.08577326E-1,-0E0],"split_indices":[7,0,0,0,3,0,5,0,0,0,0,0,0,0,0],"split_type":[0,0,0,0,0,0,0,0,0,0,0,0,0,0,0],"sum_hessian":[4.7182904E2,2.6432965E2,2.074994E2,5.0009323E1,2.1432033E2,4.3185978E1,1.7113434E2,1.1773241E1,3.1412737E1,1.1991719E1,1.5914262E2,2.9978756E1,1.4339812E0,1.544889E2,4.653718E0],"tree_param":{"num_deleted":"0","num_feature":"8","num_nodes":"15","size_leaf_vector":"0"}},{"base_weights":[-3.7057912E-1,3.4769085E-1,-1.3629086E0,-4.4066903E-1,9.0258783E-1,-9.848982E-1,-0E0,1.2688051E0,-0E0,-1.0604521E0,-0E0,7.0101815E-1,-3.1512624E-1,-0E0,1.3253331E0,8.730283E-1,-2.4025337E-1,-0E0,-5.923064E-1,-0E0,9.2344314E-1,-4.0215737E-1,-0E0],"categories":[],"categories_nodes":[],"categories_segments":[],"categories_sizes":[],"default_left":[true,true,false,true,false,true,true,false,true,false,false,false,false,false,false,false,false,false,false,false,false,false,false],"id":7,"left_children":[1,3,-1,5,7,9,11,13,15,-1,-1,-1,17,-1,-1,19,21,-1,-1,-1,-1,-1,-1],"loss_changes":[3.3558423E2,1.1850679E2,0E0,3.0058636E1,4.554686E1,5.7178955E0,1.36784935E1,9.4151306E-1,1.4731573E1,0E0,0E0,0E0,6.001848E0,0E0,0E0,4.4954205E-1,2.6673508E0,0E0,0E0,0E0,0E0,0E0,0E0],"parents":[2147483647,0,0,1,1,3,3,4,4,5,5,6,6,7,7,8,8,12,12,15,15,16,16],"right_children":[2,4,-1,6,8,10,12,14,16,-1,-1,-1,18,-1,-1,20,22,-1,-1,-1,-1,-1,-1],"split_conditions":[5E-1,1.942015E3,-1.3629086E-1,2.5E0,3E1,2.0160501E2,3.375E1,2.5E0,1.05E1,-1.0604521E-1,-0E0,7.010182E-2,1.25E1,-0E0,1.3253331E-1,2.1612349E3,3.85342E3,-0E0,-5.9230637E-2,-0E0,9.2344314E-2,-4.0215738E-2,-0E0],"split_indices":[7,3,0,1,1,3,4,1,4,0,0,0,1,0,0,3,3,0,0,0,0,0,0],"split_type":[0,0,0,0,0,0,0,0,0,0,0,0,0,0,0,0,0,0,0,0,0,0,0],"sum_hessian":[4.5491498E2,2.5843E2,1.96485E2,9.93974E1,1.5903258E2,5.0086056E1,4.9311344E1,1.0827599E2,5.0756588E1,4.81505E1,1.935554E0,2.0888712E1,2.8422632E1,8.586839E0,9.9689156E1,1.5589203E1,3.516738E1,3.9865792E0,2.4436054E1,1.2347432E0,1.435446E1,2.8400711E1,6.7666726E0],"tree_param":{"num_deleted":"0","num_feature":"8","num_nodes":"23","size_leaf_vector":"0"}},{"base_weights":[-3.46272E-1,3.2698625E-1,-1.3066423E0,-6.984747E-1,6.7929274E-1,-7.6340467E-1,-0E0,1.1881291E0,-8.943952E-3,-8.0187666E-1,-0E0,-0E0,1.2308365E0,6.086774E-2,-3.3323592E-1,-0E0,2.59245E-1],"categories":[],"categories_nodes":[],"categories_segments":[],"categories_sizes":[],"default_left":[true,true,false,true,false,true,false,true,true,false,false,false,false,true,false,false,false],"id":8,"left_children":[1,3,-1,5,7,9,-1,11,13,-1,-1,-1,-1,15,-1,-1,-1],"loss_changes":[2.9224924E2,9.099893E1,0E0,3.3485641E0,7.9971054E1,2.2732334E0,0E0,7.9352264E0,4.450538E0,0E0,0E0,0E0,0E0,1.9294822E0,0E0,0E0,0E0],"parents":[2147483647,0,0,1,1,3,3,4,4,5,5,7,7,8,8,13,13],"right_children":[2,4,-1,6,8,10,-1,12,14,-1,-1,-1,-1,16,-1,-1,-1],"split_conditions":[5E-1,2.5E0,-1.3066423E-1,5E-1,3E1,5.85E1,-0E0,9.5E0,3.35E1,-8.018767E-2,-0E0,-0E0,1.2308365E-1,1.15E1,-3.3323593E-2,-0E0,2.5924502E-2],"split_indices":[7,1,0,6,1,5,0,5,5,0,0,0,0,5,0,0,0],"split_type":[0,0,0,0,0,0,0,0,0,0,0,0,0,0,0,0,0],"sum_hessian":[4.351821E2,2.5009929E2,1.8508281E2,5.6443077E1,1.9365622E2,5.283297E1,3.6101084E0,1.19275444E2,7.438077E1,5.1326675E1,1.5062958E0,2.963892E0,1.16311554E2,3.6499306E1,3.7881462E1,6.7230043E0,2.97763E1],"tree_param":{"num_deleted":"0","num_feature":"8","num_nodes":"17","size_leaf_vector":"0"}},{"base_weights":[-3.2841572E-1,2.4539109E-1,-6.564494E-1,-7.713725E-1,1.0084792E0,-8.3786106E-1,-2.7289447E-1,-8.170016E-1,-0E0,-0E0,1.0729396E0,-8.449534E-1,-0E0,-0E0,-2.9907843E-1,-8.457892E-1,-0E0,1.104352E0,-0E0,-3.1240898E-1,-0E0],"categories":[],"categories_nodes":[],"categories_segments":[],"categories_sizes":[],"default_left":[true,true,true,true,true,true,false,true,false,false,true,false,false,false,false,false,false,false,false,false,false],"id":9,"left_children":[1,3,5,7,9,11,13,15,-1,-1,17,-1,-1,-1,19,-1,-1,-1,-1,-1,-1],"loss_changes":[8.281228E1,1.12869286E2,7.9273376E0,3.1685028E0,6.9526978E0,1.225502E0,1.2108107E0,1.6890144E0,0E0,0E0,2.7881546E0,0E0,0E0,0E0,5.843563E-1,0E0,0E0,0E0,0E0,0E0,0E0],"parents":[2147483647,0,0,1,1,2,2,3,3,4,4,5,5,6,6,7,7,10,10,14,14],"right_children":[2,4,6,8,10,12,14,16,-1,-1,18,-1,-1,-1,20,-1,-1,-1,-1,-1,-1],"split_conditions":[2.5386E2,2.5E0,3.85E1,5E-1,1E1,1.25E1,1.02971E3,5.85E1,-0E0,-0E0,1.3E1,-8.449534E-2,-0E0,-0E0,4.85741E3,-8.4578924E-2,-0E0,1.104352E-1,-0E0,-3.12409E-2,-0E0],"split_indices":[4,2,5,6,5,2,4,5,0,0,4,0,0,0,4,0,0,0,0,0,0],"split_type":[0,0,0,0,0,0,0,0,0,0,0,0,0,0,0,0,0,0,0,0,0],"sum_hessian":[4.1626328E2,1.4041397E2,2.7584927E2,5.4577557E1,8.583642E1,1.6876935E2,1.0707993E2,5.328984E1,1.2877148E0,4.0810227E0,8.1755394E1,1.6764783E2,1.1215347E0,4.5596433E0,1.0252029E2,5.2018147E1,1.2716948E0,7.940068E1,2.3547192E0,9.98616E1,2.6586843E0],"tree_param":{"num_deleted":"0","num_feature":"8","num_nodes":"21","size_leaf_vector":"0"}}]},"name":"gbtree"},"learner_model_param":{"base_score":"5E-1","num_class":"0","num_feature":"8"},"objective":{"name":"binary:logistic","reg_loss_param":{"scale_pos_weight":"1"}}},"version":[1,4,2]}